Language model created by QuickLM on Sun Jun 12 14:01:14 EDT 2016
Copyright (c) 1996-2010 Carnegie Mellon University and Alexander I. Rudnicky

The model is in standard ARPA format, designed by Doug Paul while he was at MITRE.

The code that was used to produce this language model is available in Open Source.
Please visit http://www.speech.cs.cmu.edu/tools/ for more information

The (fixed) discount mass is 0.5. The backoffs are computed using the ratio method.
This model based on a corpus of 4 sentences and 8 words

\data\
ngram 1=8
ngram 2=10
ngram 3=8

\1-grams:
-0.9031 </s> -0.3010
-0.9031 <s> -0.2430
-1.5051 BACKWARD -0.2430
-1.5051 FORWARD -0.2430
-1.5051 LEFT -0.2430
-1.2041 MOVE -0.2730
-1.5051 RIGHT -0.2430
-1.2041 TURN -0.2730

\2-grams:
-0.6021 <s> MOVE 0.0000
-0.6021 <s> TURN 0.0000
-0.3010 BACKWARD </s> -0.3010
-0.3010 FORWARD </s> -0.3010
-0.3010 LEFT </s> -0.3010
-0.6021 MOVE BACKWARD 0.0000
-0.6021 MOVE FORWARD 0.0000
-0.3010 RIGHT </s> -0.3010
-0.6021 TURN LEFT 0.0000
-0.6021 TURN RIGHT 0.0000

\3-grams:
-0.6021 <s> MOVE BACKWARD
-0.6021 <s> MOVE FORWARD
-0.6021 <s> TURN LEFT
-0.6021 <s> TURN RIGHT
-0.3010 MOVE BACKWARD </s>
-0.3010 MOVE FORWARD </s>
-0.3010 TURN LEFT </s>
-0.3010 TURN RIGHT </s>

\end\
